0,1,2,3,4,5,6,7,8,9,10,11,12,13,14,15,16,17,18,19,20,21,22,23,24,25,26,27,28,29,30,31,32,33,34,35,36,37,38,39,40,41,42,43,44,45,46,47,48,49,50,51,52,53,54,55,56,57,58,59,60,61,62,63,64,65,66,67,68,69,70,71,72,73,74,75,76,77,78,79,80,81,82,83,84,85,86,87,88,89,90,91,92,93,94,95,96,97,98
0.0568683166389,0.128360042875,-0.997265585801,-0.210345240449,-0.113615738423,0.126488536224,-0.615109614149,-0.310143770623,0.521246353212,0.212480307226,0.409889214941,-0.406216104415,-0.389090527293,0.50810091264,-1.9896270476,0.466573156841,0.0792470918295,-0.404248498441,0.093789154291,-0.230079802033,-0.18900340884,-1.04668646438,-0.390521332308,0.599405068916,0.886812272552,0.498265460464,-1.08515388227,-0.617785185301,0.419246964008,-0.340383599868,-0.659976483897,0.445930259519,-0.68249680619,0.670417533514,0.861890687267,-0.109771690794,0.327146906999,0.185998512117,0.838176446823,0.620502197759,0.0414280334578,-1.06967642109,-1.42582671147,-0.807580236124,-0.444992260346,0.0232641367834,-0.736431382954,0.548976688652,1.07057637622,-0.119056900035,0.478886818444,0.0415567122659,0.180421726534,-0.587221625855,-0.153770086061,0.223852027049,0.48043620178,0.457029008692,0.0758866371603,-0.785102163211,0.00792602284049,0.109567203774,0.22137808279,-0.156232883095,0.732755335199,-0.244094813311,0.310320502325,0.0850253172937,0.107778341981,0.561628514225,-0.886943009854,0.0771127652556,0.637021910402,-0.499734031157,-0.332131841674,0.375396683038,0.583358337245,-0.148308202005,0.130206248385,0.176476383999,-0.674850061219,0.244972766955,-0.0124458938336,0.669751500327,0.741952595359,-0.131378187605,-0.626061097713,0.588112145359,1.3914499727,1.05938275368,-0.407805526553,-0.0821589902077,0.395577583935,0.188825407791,0.124817612577,-0.017310969793,-0.849724305151,0.321839431848,1.01559624468
